       48.362879      -86.305803     -0.33484316       0
       48.351049      -86.310818     -0.34578705       1
       48.335838      -86.317266     -0.33338785       2
       48.313871      -86.326571     -0.29915905       3
       48.301198      -86.331938     -0.29225349       4
       48.286832      -86.338010     -0.26065922       5
       48.252184      -86.352651     -0.26906061       6
       48.264015      -86.347655     -0.29096794       7
       48.238662      -86.358359     -0.28395891       8
       48.214997      -86.368339     -0.31149006       9
       48.202320      -86.373684     -0.30172396      10
       48.189643      -86.379027     -0.31129742      11
       48.165132      -86.389347     -0.27956533      12
       48.140621      -86.399669     -0.28511047      13
       48.116952      -86.409627     -0.27691936      14
       48.103426      -86.415310     -0.28372478      15
       48.091593      -86.420287     -0.27942753      16
       48.067925      -86.430227     -0.28623152      17
       48.054399      -86.435901     -0.27387285      18
       48.041720      -86.441218     -0.28220510      19
       48.018896      -86.450787     -0.25332212      20
       48.004523      -86.456807     -0.26568222      21
       47.992688      -86.461757     -0.26165867      22
       47.970706      -86.470957     -0.24249935      23
       47.955486      -86.477321     -0.23972225      24
       47.942805      -86.482619     -0.24915075      25
       47.921664      -86.491443     -0.25915194      26
       47.893758      -86.503083     -0.26595640      27
       47.906443      -86.497795     -0.27438545      28
       47.873467      -86.511539     -0.24513149      29
       47.856553      -86.518585     -0.25776529      30
       47.843868      -86.523868     -0.27023315      31
       47.824420      -86.531961     -0.24235010      32
       47.806664      -86.539343     -0.22859383      33
       47.794825      -86.544268     -0.23847342      34
       47.776222      -86.551998     -0.23847342      35
       47.757623      -86.559726     -0.24513149      36
       47.745781      -86.564643     -0.23014021      37
       47.727176      -86.572365     -0.23833084      38
       47.707728      -86.580433     -0.22720146      39
       47.695889      -86.585341     -0.23539257      40
       47.678973      -86.592351     -0.25069046      41
       47.658678      -86.600752     -0.23972225      42
       47.646837      -86.605649     -0.24791336      43
       47.629920      -86.612641     -0.25082779      44
       47.609617      -86.621025     -0.23940706      45
       47.596930      -86.626262     -0.22302532      46
       47.580859      -86.632891     -0.25193214      47
       47.547869      -86.646498     -0.21605730      48
       47.560556      -86.641264     -0.23415899      49
       47.532644      -86.652774     -0.20629454      50
       47.510652      -86.661837     -0.22024059      51
       47.498810      -86.666718     -0.24374151      52
       47.483587      -86.672988     -0.24636793      53
       47.448909      -86.687245     -0.24045324      54
       47.461597      -86.682031     -0.21867180      55
       47.434527      -86.693153     -0.23067951      56
       47.412531      -86.702179     -0.21410131      57
       47.399842      -86.707384     -0.25439596      58
       47.386305      -86.712936     -0.24202633      59
       47.362614      -86.722648     -0.21809530      60
       47.349922      -86.727846     -0.21410131      61
       47.337231      -86.733040     -0.21669531      62
       47.312693      -86.743083     -0.23067951      63
       47.289004      -86.752769     -0.23207521      64
       47.264463      -86.762795     -0.22369051      65
       47.251770      -86.767980     -0.22369051      66
       47.239078      -86.773161     -0.21829700      67
       47.215384      -86.782826     -0.20591021      68
       47.201843      -86.788350     -0.22348738      69
       47.189994      -86.793180     -0.20850468      70
       47.166299      -86.802832     -0.19870090      71
       47.152755      -86.808342     -0.21249342      72
       47.140907      -86.813164     -0.21529627      73
       47.118056      -86.822455     -0.21368074      74
       47.090973      -86.833453     -0.19847775      75
       47.103669      -86.828298     -0.21809530      76
       47.068967      -86.842380     -0.20408678      77
       47.053731      -86.848556     -0.20268583      78
       47.041881      -86.853358     -0.21508265      79
       47.019874      -86.862274     -0.20666885      80
       46.991939      -86.873584     -0.22908258      81
       47.004636      -86.868446     -0.21928501      82
       46.970779      -86.882144     -0.20666885      83
       46.954700      -86.888644     -0.22305059      84
       46.942848      -86.893433     -0.22024441      85
       46.921687      -86.901982     -0.20900822      86
       46.905604      -86.908479     -0.23426485      87
       46.893751      -86.913266     -0.22422457      88
       46.873430      -86.921467     -0.20735312      89
       46.856500      -86.928295     -0.21016836      90
       46.843804      -86.933416     -0.21016836      91
       46.824334      -86.941261     -0.21298027      92
       46.806558      -86.948416     -0.21462631      93
       46.794707      -86.953184     -0.21322250      94
       46.775229      -86.961015     -0.20503139      95
       46.757447      -86.968154     -0.21345663      96
       46.744745      -86.973252     -0.22327328      97
       46.726119      -86.980731     -0.23146439      98
       46.707491      -86.988207     -0.23426485      99
       46.695639      -86.992962     -0.23706627     100
       46.677012      -87.000433     -0.24126816     101
       46.645685      -87.012986     -0.21743631     102
       46.658386      -87.007900     -0.24546432     103
       46.627903      -87.020103     -0.22445297     104
       46.608429      -87.027898     -0.22908258     105
       46.596574      -87.032638     -0.22508717     106
       46.583026      -87.038054     -0.24706125     107
